<?xml version="1.0"?>
<opencv_storage>
<opencv_ml_svm>
  <format>3</format>
  <svmType>C_SVC</svmType>
  <kernel>
    <type>RBF</type>
    <gamma>1.0000000000000001e-05</gamma></kernel>
  <C>0.5</C>
  <term_criteria><epsilon>1.1920928955078125e-07</epsilon>
    <iterations>1000</iterations></term_criteria>
  <var_count>2</var_count>
  <class_count>2</class_count>
  <class_labels type_id="opencv-matrix">
    <rows>2</rows>
    <cols>1</cols>
    <dt>i</dt>
    <data>
      0 1</data></class_labels>
  <sv_total>36</sv_total>
  <support_vectors>
    <_>
      59. 87.</_>
    <_>
      18. 157.</_>
    <_>
      126. 66.</_>
    <_>
      84. 83.</_>
    <_>
      84. 139.</_>
    <_>
      135. 100.</_>
    <_>
      80. 145.</_>
    <_>
      99. 155.</_>
    <_>
      137. 155.</_>
    <_>
      30. 139.</_>
    <_>
      82. 49.</_>
    <_>
      34. 137.</_>
    <_>
      79. 119.</_>
    <_>
      73. 81.</_>
    <_>
      49. 116.</_>
    <_>
      54. 140.</_>
    <_>
      96. 31.</_>
    <_>
      112. 35.</_>
    <_>
      218. 99.</_>
    <_>
      136. 182.</_>
    <_>
      168. 158.</_>
    <_>
      243. 116.</_>
    <_>
      156. 149.</_>
    <_>
      130. 229.</_>
    <_>
      139. 149.</_>
    <_>
      145. 207.</_>
    <_>
      148. 199.</_>
    <_>
      98. 241.</_>
    <_>
      180. 190.</_>
    <_>
      108. 148.</_>
    <_>
      108. 110.</_>
    <_>
      152. 215.</_>
    <_>
      103. 98.</_>
    <_>
      139. 136.</_>
    <_>
      183. 165.</_>
    <_>
      106. 120.</_></support_vectors>
  <decision_functions>
    <_>
      <sv_count>36</sv_count>
      <rho>-0.028149232268333435</rho>
      <alpha>
        0.5 0.5 0.5 0.5 0.5 0.5 0.5 0.5 0.5 0.5 0.060064392824472776 0.5
        0.5 0.5 0.5 0.5 0.5 0.5 -0.5 -0.5 -0.5 -0.5 -0.5 -0.5 -0.5 -0.5
        -0.5 -0.5 -0.060064392824472776 -0.5 -0.5 -0.5 -0.5 -0.5 -0.5
        -0.5</alpha>
      <index>
        0 1 2 3 4 5 6 7 8 9 10 11 12 13 14 15 16 17 18 19 20 21 22 23 24
        25 26 27 28 29 30 31 32 33 34 35</index></_></decision_functions></opencv_ml_svm>
</opencv_storage>
